<?xml version="1.0"?>
<opencv_storage>
<cascade>
  <stageType>BOOST</stageType>
  <featureType>HAAR</featureType>
  <height>24</height>
  <width>44</width>
  <stageParams>
    <boostType>GAB</boostType>
    <minHitRate>9.9500000476837158e-01</minHitRate>
    <maxFalseAlarm>5.0000000000000000e-01</maxFalseAlarm>
    <weightTrimRate>9.4999999999999996e-01</weightTrimRate>
    <maxDepth>1</maxDepth>
    <maxWeakCount>100</maxWeakCount></stageParams>
  <featureParams>
    <maxCatCount>0</maxCatCount>
    <featSize>1</featSize>
    <mode>BASIC</mode></featureParams>
  <stageNum>20</stageNum>
  <stages>
    <!-- stage 0 -->
    <_>
      <maxWeakCount>3</maxWeakCount>
      <stageThreshold>-1.1120778322219849e+00</stageThreshold>
      <weakClassifiers>
        <_>
          <internalNodes>
            0 -1 83 6.5624751150608063e-02</internalNodes>
          <leafValues>
            -8.0360066890716553e-01 6.4102566242218018e-01</leafValues></_>
        <_>
          <internalNodes>
            0 -1 24 -1.2689420953392982e-02</internalNodes>
          <leafValues>
            6.1607903242111206e-01 -6.7851436138153076e-01</leafValues></_>
        <_>
          <internalNodes>
            0 -1 116 -2.2030929103493690e-02</internalNodes>
          <leafValues>
            -9.9581021070480347e-01 3.7003719806671143e-01</leafValues></_></weakClassifiers></_>
    <!-- stage 1 -->
    <_>
      <maxWeakCount>4</maxWeakCount>
      <stageThreshold>-6.9683843851089478e-01</stageThreshold>
      <weakClassifiers>
        <_>
          <internalNodes>
            0 -1 30 -2.4476405233144760e-02</internalNodes>
          <leafValues>
            7.8280544281005859e-01 -7.3755657672882080e-01</leafValues></_>
        <_>
          <internalNodes>
            0 -1 153 -8.0595546023687348e-06</internalNodes>
          <leafValues>
            -9.4303768873214722e-01 2.8765097260475159e-01</leafValues></_>
        <_>
          <internalNodes>
            0 -1 141 1.2504275888204575e-02</internalNodes>
          <leafValues>
            -5.8428078889846802e-01 5.8396887779235840e-01</leafValues></_>
        <_>
          <internalNodes>
            0 -1 80 8.7963944679358974e-06</internalNodes>
          <leafValues>
            3.3734789490699768e-01 -9.8459404706954956e-01</leafValues></_></weakClassifiers></_>
    <!-- stage 2 -->
    <_>
      <maxWeakCount>4</maxWeakCount>
      <stageThreshold>-1.0806211233139038e+00</stageThreshold>
      <weakClassifiers>
        <_>
          <internalNodes>
            0 -1 80 -8.1196876635658555e-06</internalNodes>
          <leafValues>
            -8.9811319112777710e-01 4.5197740197181702e-01</leafValues></_>
        <_>
          <internalNodes>
            0 -1 23 -3.6579975858330727e-03</internalNodes>
          <leafValues>
            3.3451402187347412e-01 -7.2186523675918579e-01</leafValues></_>
        <_>
          <internalNodes>
            0 -1 40 -6.9011930463602766e-06</internalNodes>
          <leafValues>
            -8.8059413433074951e-01 3.0608794093132019e-01</leafValues></_>
        <_>
          <internalNodes>
            0 -1 4 7.0582004809693899e-06</internalNodes>
          <leafValues>
            4.6799984574317932e-01 -8.2310992479324341e-01</leafValues></_></weakClassifiers></_>
    <!-- stage 3 -->
    <_>
      <maxWeakCount>5</maxWeakCount>
      <stageThreshold>-1.2504489421844482e+00</stageThreshold>
      <weakClassifiers>
        <_>
          <internalNodes>
            0 -1 86 -1.0696346312761307e-01</internalNodes>
          <leafValues>
            6.8888890743255615e-01 -7.1471929550170898e-01</leafValues></_>
        <_>
          <internalNodes>
            0 -1 144 1.4305636286735535e-02</internalNodes>
          <leafValues>
            -5.5544126033782959e-01 5.5717921257019043e-01</leafValues></_>
        <_>
          <internalNodes>
            0 -1 103 -6.5087541006505489e-03</internalNodes>
          <leafValues>
            -6.4148455858230591e-01 4.6467426419258118e-01</leafValues></_>
        <_>
          <internalNodes>
            0 -1 18 -9.1927619650959969e-03</internalNodes>
          <leafValues>
            4.0545699000358582e-01 -5.6894510984420776e-01</leafValues></_>
        <_>
          <internalNodes>
            0 -1 1 7.1987728915701155e-06</internalNodes>
          <leafValues>
            2.8238976001739502e-01 -8.5688132047653198e-01</leafValues></_></weakClassifiers></_>
    <!-- stage 4 -->
    <_>
      <maxWeakCount>3</maxWeakCount>
      <stageThreshold>-1.1307733058929443e+00</stageThreshold>
      <weakClassifiers>
        <_>
          <internalNodes>
            0 -1 135 8.2587599754333496e-03</internalNodes>
          <leafValues>
            -8.4485667943954468e-01 6.3573884963989258e-01</leafValues></_>
        <_>
          <internalNodes>
            0 -1 42 -3.2291617244482040e-03</internalNodes>
          <leafValues>
            5.0450277328491211e-01 -7.9600453376770020e-01</leafValues></_>
        <_>
          <internalNodes>
            0 -1 99 -4.3913684785366058e-03</internalNodes>
          <leafValues>
            5.1008790731430054e-01 -7.1518701314926147e-01</leafValues></_></weakClassifiers></_>
    <!-- stage 5 -->
    <_>
      <maxWeakCount>5</maxWeakCount>
      <stageThreshold>-1.6963573694229126e+00</stageThreshold>
      <weakClassifiers>
        <_>
          <internalNodes>
            0 -1 28 -3.7020132876932621e-03</internalNodes>
          <leafValues>
            2.2388060390949249e-01 -8.4232366085052490e-01</leafValues></_>
        <_>
          <internalNodes>
            0 -1 142 1.3552681542932987e-02</internalNodes>
          <leafValues>
            -5.8207207918167114e-01 4.2601296305656433e-01</leafValues></_>
        <_>
          <internalNodes>
            0 -1 9 -4.9811471253633499e-03</internalNodes>
          <leafValues>
            4.3092778325080872e-01 -5.2095597982406616e-01</leafValues></_>
        <_>
          <internalNodes>
            0 -1 64 9.3072354793548584e-03</internalNodes>
          <leafValues>
            -3.7821793556213379e-01 6.0701990127563477e-01</leafValues></_>
        <_>
          <internalNodes>
            0 -1 63 1.9259586930274963e-02</internalNodes>
          <leafValues>
            -3.5802561044692993e-01 6.0364770889282227e-01</leafValues></_></weakClassifiers></_>
    <!-- stage 6 -->
    <_>
      <maxWeakCount>6</maxWeakCount>
      <stageThreshold>-1.0030065774917603e+00</stageThreshold>
      <weakClassifiers>
        <_>
          <internalNodes>
            0 -1 5 -2.8678544331341982e-03</internalNodes>
          <leafValues>
            1.8251928687095642e-01 -7.8181821107864380e-01</leafValues></_>
        <_>
          <internalNodes>
            0 -1 50 1.4690809883177280e-02</internalNodes>
          <leafValues>
            -6.8619847297668457e-01 3.0370074510574341e-01</leafValues></_>
        <_>
          <internalNodes>
            0 -1 161 7.0942683123575989e-06</internalNodes>
          <leafValues>
            2.4153287708759308e-01 -7.9941147565841675e-01</leafValues></_>
        <_>
          <internalNodes>
            0 -1 33 7.1716881393513177e-06</internalNodes>
          <leafValues>
            1.8255200982093811e-01 -8.8139683008193970e-01</leafValues></_>
        <_>
          <internalNodes>
            0 -1 113 -1.8878930131904781e-04</internalNodes>
          <leafValues>
            4.6075594425201416e-01 -4.6126425266265869e-01</leafValues></_>
        <_>
          <internalNodes>
            0 -1 77 3.0170120298862457e-03</internalNodes>
          <leafValues>
            -2.8235840797424316e-01 6.4411813020706177e-01</leafValues></_></weakClassifiers></_>
    <!-- stage 7 -->
    <_>
      <maxWeakCount>7</maxWeakCount>
      <stageThreshold>-1.2796126604080200e+00</stageThreshold>
      <weakClassifiers>
        <_>
          <internalNodes>
            0 -1 52 -4.9022600054740906e-02</internalNodes>
          <leafValues>
            5.9952039271593094e-02 -7.3019272089004517e-01</leafValues></_>
        <_>
          <internalNodes>
            0 -1 10 -5.9847566262760665e-06</internalNodes>
          <leafValues>
            -8.1981492042541504e-01 2.3965418338775635e-01</leafValues></_>
        <_>
          <internalNodes>
            0 -1 161 -2.9542254196712747e-05</internalNodes>
          <leafValues>
            -8.0455952882766724e-01 2.1818459033966064e-01</leafValues></_>
        <_>
          <internalNodes>
            0 -1 46 -6.6430366132408381e-06</internalNodes>
          <leafValues>
            -8.3007657527923584e-01 1.9123542308807373e-01</leafValues></_>
        <_>
          <internalNodes>
            0 -1 162 7.7122176662669517e-06</internalNodes>
          <leafValues>
            1.7327652871608734e-01 -8.0949175357818604e-01</leafValues></_>
        <_>
          <internalNodes>
            0 -1 57 -7.1163638494908810e-03</internalNodes>
          <leafValues>
            4.5238617062568665e-01 -3.5727760195732117e-01</leafValues></_>
        <_>
          <internalNodes>
            0 -1 27 1.4672122233605478e-05</internalNodes>
          <leafValues>
            2.5805634260177612e-01 -6.4582353830337524e-01</leafValues></_></weakClassifiers></_>
    <!-- stage 8 -->
    <_>
      <maxWeakCount>7</maxWeakCount>
      <stageThreshold>-1.4485349655151367e+00</stageThreshold>
      <weakClassifiers>
        <_>
          <internalNodes>
            0 -1 147 6.6790450364351273e-03</internalNodes>
          <leafValues>
            -7.4266368150711060e-01 2.9478458687663078e-02</leafValues></_>
        <_>
          <internalNodes>
            0 -1 10 2.6776564482133836e-05</internalNodes>
          <leafValues>
            1.7501668632030487e-01 -8.4234201908111572e-01</leafValues></_>
        <_>
          <internalNodes>
            0 -1 44 -1.1490229517221451e-02</internalNodes>
          <leafValues>
            3.9773586392402649e-01 -4.6203771233558655e-01</leafValues></_>
        <_>
          <internalNodes>
            0 -1 41 -1.7745474906405434e-05</internalNodes>
          <leafValues>
            -7.9569876194000244e-01 2.6103624701499939e-01</leafValues></_>
        <_>
          <internalNodes>
            0 -1 98 -1.0349816083908081e-01</internalNodes>
          <leafValues>
            -9.8919755220413208e-01 1.2371815741062164e-01</leafValues></_>
        <_>
          <internalNodes>
            0 -1 124 9.1043692082166672e-03</internalNodes>
          <leafValues>
            -3.2047122716903687e-01 5.7875657081604004e-01</leafValues></_>
        <_>
          <internalNodes>
            0 -1 32 -4.5304154045879841e-03</internalNodes>
          <leafValues>
            4.6617996692657471e-01 -3.2554832100868225e-01</leafValues></_></weakClassifiers></_>
    <!-- stage 9 -->
    <_>
      <maxWeakCount>7</maxWeakCount>
      <stageThreshold>-9.5780217647552490e-01</stageThreshold>
      <weakClassifiers>
        <_>
          <internalNodes>
            0 -1 25 1.6410833597183228e-01</internalNodes>
          <leafValues>
            -4.6485820412635803e-01 8.3561640977859497e-01</leafValues></_>
        <_>
          <internalNodes>
            0 -1 26 -7.4407080319360830e-06</internalNodes>
          <leafValues>
            -8.2970392704010010e-01 1.7372839152812958e-01</leafValues></_>
        <_>
          <internalNodes>
            0 -1 39 -7.5731068136519752e-06</internalNodes>
          <leafValues>
            -8.7110006809234619e-01 1.7283670604228973e-01</leafValues></_>
        <_>
          <internalNodes>
            0 -1 22 1.0458500582899433e-05</internalNodes>
          <leafValues>
            1.7550753057003021e-01 -7.7261281013488770e-01</leafValues></_>
        <_>
          <internalNodes>
            0 -1 6 -3.2512609323021024e-05</internalNodes>
          <leafValues>
            -7.3281341791152954e-01 2.0207846164703369e-01</leafValues></_>
        <_>
          <internalNodes>
            0 -1 137 2.7400022372603416e-03</internalNodes>
          <leafValues>
            -5.5601269006729126e-01 2.2738584876060486e-01</leafValues></_>
        <_>
          <internalNodes>
            0 -1 92 3.7168688140809536e-04</internalNodes>
          <leafValues>
            -3.1153538823127747e-01 4.3853136897087097e-01</leafValues></_></weakClassifiers></_>
    <!-- stage 10 -->
    <_>
      <maxWeakCount>13</maxWeakCount>
      <stageThreshold>-1.5036981105804443e+00</stageThreshold>
      <weakClassifiers>
        <_>
          <internalNodes>
            0 -1 61 1.8185463547706604e-01</internalNodes>
          <leafValues>
            -4.5700246095657349e-01 8.0000001192092896e-01</leafValues></_>
        <_>
          <internalNodes>
            0 -1 56 1.3354076072573662e-02</internalNodes>
          <leafValues>
            -2.9059123992919922e-01 5.8833825588226318e-01</leafValues></_>
        <_>
          <internalNodes>
            0 -1 136 7.0610694820061326e-06</internalNodes>
          <leafValues>
            2.2031168639659882e-01 -8.0787932872772217e-01</leafValues></_>
        <_>
          <internalNodes>
            0 -1 160 6.5793774410849437e-06</internalNodes>
          <leafValues>
            1.0892093181610107e-01 -8.7669384479522705e-01</leafValues></_>
        <_>
          <internalNodes>
            0 -1 53 -1.5471579972654581e-03</internalNodes>
          <leafValues>
            3.3108952641487122e-01 -3.7418761849403381e-01</leafValues></_>
        <_>
          <internalNodes>
            0 -1 17 -1.9918368197977543e-03</internalNodes>
          <leafValues>
            2.8378510475158691e-01 -4.5096400380134583e-01</leafValues></_>
        <_>
          <internalNodes>
            0 -1 73 3.1544570811092854e-03</internalNodes>
          <leafValues>
            -3.3357119560241699e-01 4.1808933019638062e-01</leafValues></_>
        <_>
          <internalNodes>
            0 -1 105 -6.5921340137720108e-04</internalNodes>
          <leafValues>
            3.9757731556892395e-01 -3.0630791187286377e-01</leafValues></_>
        <_>
          <internalNodes>
            0 -1 118 -8.1500253872945905e-04</internalNodes>
          <leafValues>
            5.5741572380065918e-01 -2.1435242891311646e-01</leafValues></_>
        <_>
          <internalNodes>
            0 -1 47 -5.9735712056863122e-06</internalNodes>
          <leafValues>
            -5.8567315340042114e-01 2.3692686855792999e-01</leafValues></_>
        <_>
          <internalNodes>
            0 -1 131 -3.2573903445154428e-04</internalNodes>
          <leafValues>
            4.7861558198928833e-01 -2.5397247076034546e-01</leafValues></_>
        <_>
          <internalNodes>
            0 -1 123 -2.8349196538329124e-02</internalNodes>
          <leafValues>
            -1.4886093139648438e-01 7.2163003683090210e-01</leafValues></_>
        <_>
          <internalNodes>
            0 -1 154 -6.3002798924571835e-06</internalNodes>
          <leafValues>
            -9.5624321699142456e-01 1.4468750357627869e-01</leafValues></_></weakClassifiers></_>
    <!-- stage 11 -->
    <_>
      <maxWeakCount>8</maxWeakCount>
      <stageThreshold>-1.2428780794143677e+00</stageThreshold>
      <weakClassifiers>
        <_>
          <internalNodes>
            0 -1 87 -8.8238000869750977e-01</internalNodes>
          <leafValues>
            -3.0674846842885017e-02 -7.6202529668807983e-01</leafValues></_>
        <_>
          <internalNodes>
            0 -1 82 -1.3723445590585470e-03</internalNodes>
          <leafValues>
            3.0500069260597229e-01 -4.2675340175628662e-01</leafValues></_>
        <_>
          <internalNodes>
            0 -1 18 -4.5209312811493874e-03</internalNodes>
          <leafValues>
            2.2038844227790833e-01 -6.0156154632568359e-01</leafValues></_>
        <_>
          <internalNodes>
            0 -1 150 2.2952391300350428e-03</internalNodes>
          <leafValues>
            -4.0956571698188782e-01 3.0165520310401917e-01</leafValues></_>
        <_>
          <internalNodes>
            0 -1 65 7.6970778172835708e-04</internalNodes>
          <leafValues>
            -2.7001211047172546e-01 4.3994641304016113e-01</leafValues></_>
        <_>
          <internalNodes>
            0 -1 157 4.7434209591301624e-06</internalNodes>
          <leafValues>
            1.9141237437725067e-01 -6.1012667417526245e-01</leafValues></_>
        <_>
          <internalNodes>
            0 -1 84 -5.2584661170840263e-03</internalNodes>
          <leafValues>
            6.4226061105728149e-01 -1.8335896730422974e-01</leafValues></_>
        <_>
          <internalNodes>
            0 -1 133 -2.3652159143239260e-04</internalNodes>
          <leafValues>
            4.2602822184562683e-01 -3.1292191147804260e-01</leafValues></_></weakClassifiers></_>
    <!-- stage 12 -->
    <_>
      <maxWeakCount>10</maxWeakCount>
      <stageThreshold>-1.0628113746643066e+00</stageThreshold>
      <weakClassifiers>
        <_>
          <internalNodes>
            0 -1 109 -1.6399893909692764e-02</internalNodes>
          <leafValues>
            3.3333334326744080e-01 -4.9189189076423645e-01</leafValues></_>
        <_>
          <internalNodes>
            0 -1 29 -5.3060185164213181e-02</internalNodes>
          <leafValues>
            3.1568059325218201e-01 -3.3122432231903076e-01</leafValues></_>
        <_>
          <internalNodes>
            0 -1 2 1.5341691323556006e-05</internalNodes>
          <leafValues>
            9.9568597972393036e-02 -9.6609526872634888e-01</leafValues></_>
        <_>
          <internalNodes>
            0 -1 11 -2.3521929979324341e-03</internalNodes>
          <leafValues>
            3.7156197428703308e-01 -2.7741798758506775e-01</leafValues></_>
        <_>
          <internalNodes>
            0 -1 20 2.7761817909777164e-03</internalNodes>
          <leafValues>
            -1.7372560501098633e-01 6.0470724105834961e-01</leafValues></_>
        <_>
          <internalNodes>
            0 -1 143 4.0960827027447522e-04</internalNodes>
          <leafValues>
            -3.7423259019851685e-01 2.9890480637550354e-01</leafValues></_>
        <_>
          <internalNodes>
            0 -1 60 -1.0144890844821930e-01</internalNodes>
          <leafValues>
            7.7223074436187744e-01 -1.3870337605476379e-01</leafValues></_>
        <_>
          <internalNodes>
            0 -1 106 -2.3453081026673317e-02</internalNodes>
          <leafValues>
            -1. 1.5487405657768250e-01</leafValues></_>
        <_>
          <internalNodes>
            0 -1 104 2.9836404137313366e-03</internalNodes>
          <leafValues>
            -3.2084769010543823e-01 3.5128572583198547e-01</leafValues></_>
        <_>
          <internalNodes>
            0 -1 40 -5.1279512263135985e-06</internalNodes>
          <leafValues>
            -8.2779824733734131e-01 1.4180947840213776e-01</leafValues></_></weakClassifiers></_>
    <!-- stage 13 -->
    <_>
      <maxWeakCount>8</maxWeakCount>
      <stageThreshold>-9.6437263488769531e-01</stageThreshold>
      <weakClassifiers>
        <_>
          <internalNodes>
            0 -1 78 8.7952263653278351e-02</internalNodes>
          <leafValues>
            -5.0000000000000000e-01 4.0000000596046448e-01</leafValues></_>
        <_>
          <internalNodes>
            0 -1 37 3.6789658479392529e-03</internalNodes>
          <leafValues>
            -4.5725601911544800e-01 2.1134082973003387e-01</leafValues></_>
        <_>
          <internalNodes>
            0 -1 35 5.9603198678814806e-06</internalNodes>
          <leafValues>
            1.4641082286834717e-01 -7.7245092391967773e-01</leafValues></_>
        <_>
          <internalNodes>
            0 -1 8 -1.7163336277008057e-01</internalNodes>
          <leafValues>
            -6.8503761291503906e-01 1.2885269522666931e-01</leafValues></_>
        <_>
          <internalNodes>
            0 -1 79 2.9956658836454153e-03</internalNodes>
          <leafValues>
            -2.7996414899826050e-01 4.0015983581542969e-01</leafValues></_>
        <_>
          <internalNodes>
            0 -1 158 5.2537734518409707e-06</internalNodes>
          <leafValues>
            1.1228770762681961e-01 -7.1243983507156372e-01</leafValues></_>
        <_>
          <internalNodes>
            0 -1 139 -5.9015373699367046e-04</internalNodes>
          <leafValues>
            4.2122605443000793e-01 -2.1525214612483978e-01</leafValues></_>
        <_>
          <internalNodes>
            0 -1 45 6.9726752117276192e-03</internalNodes>
          <leafValues>
            -1.7119003832340240e-01 5.3906267881393433e-01</leafValues></_></weakClassifiers></_>
    <!-- stage 14 -->
    <_>
      <maxWeakCount>11</maxWeakCount>
      <stageThreshold>-1.0118535757064819e+00</stageThreshold>
      <weakClassifiers>
        <_>
          <internalNodes>
            0 -1 54 5.4271697998046875e-02</internalNodes>
          <leafValues>
            -4.7466665506362915e-01 2.9850745201110840e-01</leafValues></_>
        <_>
          <internalNodes>
            0 -1 149 -1.4455592632293701e-01</internalNodes>
          <leafValues>
            8.5044853389263153e-02 -8.0806255340576172e-01</leafValues></_>
        <_>
          <internalNodes>
            0 -1 146 5.0225816667079926e-03</internalNodes>
          <leafValues>
            -4.2550697922706604e-01 2.4569280445575714e-01</leafValues></_>
        <_>
          <internalNodes>
            0 -1 89 -4.2487699538469315e-03</internalNodes>
          <leafValues>
            5.0344371795654297e-01 -2.1342125535011292e-01</leafValues></_>
        <_>
          <internalNodes>
            0 -1 76 -6.7050784826278687e-02</internalNodes>
          <leafValues>
            -9.4887495040893555e-01 1.3958145678043365e-01</leafValues></_>
        <_>
          <internalNodes>
            0 -1 71 -4.0110223926603794e-03</internalNodes>
          <leafValues>
            4.6249461174011230e-01 -2.3408776521682739e-01</leafValues></_>
        <_>
          <internalNodes>
            0 -1 34 -3.7934079766273499e-02</internalNodes>
          <leafValues>
            3.7989661097526550e-01 -2.4182839691638947e-01</leafValues></_>
        <_>
          <internalNodes>
            0 -1 66 1.4080540859140456e-04</internalNodes>
          <leafValues>
            -2.3569782078266144e-01 3.9249238371849060e-01</leafValues></_>
        <_>
          <internalNodes>
            0 -1 108 -5.9377066463639494e-06</internalNodes>
          <leafValues>
            -6.9120693206787109e-01 1.6334192454814911e-01</leafValues></_>
        <_>
          <internalNodes>
            0 -1 162 5.3187009143584874e-06</internalNodes>
          <leafValues>
            7.1754865348339081e-02 -7.9854714870452881e-01</leafValues></_>
        <_>
          <internalNodes>
            0 -1 148 -2.9822322539985180e-04</internalNodes>
          <leafValues>
            6.6077190637588501e-01 -1.5960107743740082e-01</leafValues></_></weakClassifiers></_>
    <!-- stage 15 -->
    <_>
      <maxWeakCount>14</maxWeakCount>
      <stageThreshold>-8.2763081789016724e-01</stageThreshold>
      <weakClassifiers>
        <_>
          <internalNodes>
            0 -1 14 1.4877110719680786e-01</internalNodes>
          <leafValues>
            -4.6544981002807617e-01 3.5042735934257507e-01</leafValues></_>
        <_>
          <internalNodes>
            0 -1 85 1.1174618266522884e-03</internalNodes>
          <leafValues>
            -1.8740262091159821e-01 4.9937936663627625e-01</leafValues></_>
        <_>
          <internalNodes>
            0 -1 31 -5.9135268202226143e-06</internalNodes>
          <leafValues>
            -6.9097119569778442e-01 1.1302660405635834e-01</leafValues></_>
        <_>
          <internalNodes>
            0 -1 72 -8.7260187137871981e-04</internalNodes>
          <leafValues>
            2.6717141270637512e-01 -2.8086629509925842e-01</leafValues></_>
        <_>
          <internalNodes>
            0 -1 43 -3.0983760952949524e-03</internalNodes>
          <leafValues>
            3.2430019974708557e-01 -2.4816128611564636e-01</leafValues></_>
        <_>
          <internalNodes>
            0 -1 107 -5.3727714112028480e-04</internalNodes>
          <leafValues>
            1.4177361130714417e-01 -5.3512918949127197e-01</leafValues></_>
        <_>
          <internalNodes>
            0 -1 159 5.8255723160982598e-06</internalNodes>
          <leafValues>
            1.3252407312393188e-01 -6.5306979417800903e-01</leafValues></_>
        <_>
          <internalNodes>
            0 -1 102 1.2426296598277986e-04</internalNodes>
          <leafValues>
            -1.5581481158733368e-01 5.0364881753921509e-01</leafValues></_>
        <_>
          <internalNodes>
            0 -1 117 -4.7023027036630083e-06</internalNodes>
          <leafValues>
            -2.8790283203125000e-01 2.7121248841285706e-01</leafValues></_>
        <_>
          <internalNodes>
            0 -1 58 -5.2177137695252895e-03</internalNodes>
          <leafValues>
            2.7470257878303528e-01 -3.1704589724540710e-01</leafValues></_>
        <_>
          <internalNodes>
            0 -1 114 -3.9494238444603980e-04</internalNodes>
          <leafValues>
            4.4961106777191162e-01 -1.9991001486778259e-01</leafValues></_>
        <_>
          <internalNodes>
            0 -1 128 -9.7693037241697311e-04</internalNodes>
          <leafValues>
            3.8568478822708130e-01 -1.9301703572273254e-01</leafValues></_>
        <_>
          <internalNodes>
            0 -1 127 -8.4077770588919520e-04</internalNodes>
          <leafValues>
            3.0803978443145752e-01 -2.6011949777603149e-01</leafValues></_>
        <_>
          <internalNodes>
            0 -1 48 2.1380839869379997e-02</internalNodes>
          <leafValues>
            -1.8537043035030365e-01 4.3395969271659851e-01</leafValues></_></weakClassifiers></_>
    <!-- stage 16 -->
    <_>
      <maxWeakCount>13</maxWeakCount>
      <stageThreshold>-9.9113839864730835e-01</stageThreshold>
      <weakClassifiers>
        <_>
          <internalNodes>
            0 -1 68 3.4716164227575064e-03</internalNodes>
          <leafValues>
            -5.5183947086334229e-01 3.5460993647575378e-02</leafValues></_>
        <_>
          <internalNodes>
            0 -1 96 6.5465364968986250e-06</internalNodes>
          <leafValues>
            4.8290185630321503e-02 -9.2708152532577515e-01</leafValues></_>
        <_>
          <internalNodes>
            0 -1 145 9.5970220863819122e-03</internalNodes>
          <leafValues>
            -2.7107349038124084e-01 2.7845844626426697e-01</leafValues></_>
        <_>
          <internalNodes>
            0 -1 51 2.5203297846019268e-03</internalNodes>
          <leafValues>
            -2.7504241466522217e-01 2.6931408047676086e-01</leafValues></_>
        <_>
          <internalNodes>
            0 -1 100 4.7350590648420621e-06</internalNodes>
          <leafValues>
            2.8790566325187683e-01 -3.4816470742225647e-01</leafValues></_>
        <_>
          <internalNodes>
            0 -1 36 7.1347570046782494e-03</internalNodes>
          <leafValues>
            -4.9328824877738953e-01 2.0183251798152924e-01</leafValues></_>
        <_>
          <internalNodes>
            0 -1 74 -2.0045524835586548e-01</internalNodes>
          <leafValues>
            3.9109367132186890e-01 -2.1970643103122711e-01</leafValues></_>
        <_>
          <internalNodes>
            0 -1 15 -8.8994265752262436e-06</internalNodes>
          <leafValues>
            -6.8609106540679932e-01 1.5104524791240692e-01</leafValues></_>
        <_>
          <internalNodes>
            0 -1 3 -4.1268193162977695e-03</internalNodes>
          <leafValues>
            6.5730953216552734e-01 -1.6169565916061401e-01</leafValues></_>
        <_>
          <internalNodes>
            0 -1 55 1.5602186322212219e-02</internalNodes>
          <leafValues>
            -1.6766387224197388e-01 4.7786036133766174e-01</leafValues></_>
        <_>
          <internalNodes>
            0 -1 155 -7.8734901762800291e-06</internalNodes>
          <leafValues>
            -6.4814937114715576e-01 1.5247759222984314e-01</leafValues></_>
        <_>
          <internalNodes>
            0 -1 93 -2.7617265004664660e-04</internalNodes>
          <leafValues>
            6.8258100748062134e-01 -1.4264447987079620e-01</leafValues></_>
        <_>
          <internalNodes>
            0 -1 112 4.6446871238003951e-06</internalNodes>
          <leafValues>
            2.5640854239463806e-01 -3.4728553891181946e-01</leafValues></_></weakClassifiers></_>
    <!-- stage 17 -->
    <_>
      <maxWeakCount>13</maxWeakCount>
      <stageThreshold>-1.1276468038558960e+00</stageThreshold>
      <weakClassifiers>
        <_>
          <internalNodes>
            0 -1 67 -4.9805887043476105e-02</internalNodes>
          <leafValues>
            2.8455284237861633e-01 -4.6895641088485718e-01</leafValues></_>
        <_>
          <internalNodes>
            0 -1 70 -1.3558024168014526e-01</internalNodes>
          <leafValues>
            7.4830615520477295e-01 -1.3988502323627472e-01</leafValues></_>
        <_>
          <internalNodes>
            0 -1 0 -3.7865042686462402e-02</internalNodes>
          <leafValues>
            -1. 8.7845034897327423e-02</leafValues></_>
        <_>
          <internalNodes>
            0 -1 7 -5.1326707005500793e-02</internalNodes>
          <leafValues>
            3.9091628789901733e-01 -2.3172989487648010e-01</leafValues></_>
        <_>
          <internalNodes>
            0 -1 13 -3.7032556720077991e-03</internalNodes>
          <leafValues>
            2.4644543230533600e-01 -3.5702562332153320e-01</leafValues></_>
        <_>
          <internalNodes>
            0 -1 110 8.9235993800684810e-04</internalNodes>
          <leafValues>
            -1.7362506687641144e-01 5.0700491666793823e-01</leafValues></_>
        <_>
          <internalNodes>
            0 -1 90 5.4232732509262860e-06</internalNodes>
          <leafValues>
            1.1225377023220062e-01 -8.3100003004074097e-01</leafValues></_>
        <_>
          <internalNodes>
            0 -1 111 -3.6705671809613705e-03</internalNodes>
          <leafValues>
            3.6912742257118225e-01 -2.0634759962558746e-01</leafValues></_>
        <_>
          <internalNodes>
            0 -1 115 -2.3951882030814886e-04</internalNodes>
          <leafValues>
            4.5483186841011047e-01 -1.9165398180484772e-01</leafValues></_>
        <_>
          <internalNodes>
            0 -1 95 -5.9117432683706284e-03</internalNodes>
          <leafValues>
            5.1371985673904419e-01 -1.3205111026763916e-01</leafValues></_>
        <_>
          <internalNodes>
            0 -1 101 -6.0237135039642453e-04</internalNodes>
          <leafValues>
            4.1110190749168396e-01 -2.0134298503398895e-01</leafValues></_>
        <_>
          <internalNodes>
            0 -1 156 5.2120444706815761e-06</internalNodes>
          <leafValues>
            1.3586744666099548e-01 -6.5753501653671265e-01</leafValues></_>
        <_>
          <internalNodes>
            0 -1 88 -3.7760310806334019e-03</internalNodes>
          <leafValues>
            4.4905066490173340e-01 -1.7757211625576019e-01</leafValues></_></weakClassifiers></_>
    <!-- stage 18 -->
    <_>
      <maxWeakCount>17</maxWeakCount>
      <stageThreshold>-1.0809987783432007e+00</stageThreshold>
      <weakClassifiers>
        <_>
          <internalNodes>
            0 -1 125 3.9585791528224945e-03</internalNodes>
          <leafValues>
            -4.4836270809173584e-01 4.1860464215278625e-01</leafValues></_>
        <_>
          <internalNodes>
            0 -1 91 7.9764589667320251e-02</internalNodes>
          <leafValues>
            -2.1101544797420502e-01 4.2239969968795776e-01</leafValues></_>
        <_>
          <internalNodes>
            0 -1 81 3.0784424394369125e-02</internalNodes>
          <leafValues>
            -1.3316468894481659e-01 5.6177854537963867e-01</leafValues></_>
        <_>
          <internalNodes>
            0 -1 119 -2.2355720866471529e-03</internalNodes>
          <leafValues>
            3.3421206474304199e-01 -2.2251394391059875e-01</leafValues></_>
        <_>
          <internalNodes>
            0 -1 151 3.6341734230518341e-03</internalNodes>
          <leafValues>
            -2.0366336405277252e-01 3.3937078714370728e-01</leafValues></_>
        <_>
          <internalNodes>
            0 -1 12 7.6579317465075292e-06</internalNodes>
          <leafValues>
            1.2655396759510040e-01 -6.5291929244995117e-01</leafValues></_>
        <_>
          <internalNodes>
            0 -1 75 1.0213444940745831e-02</internalNodes>
          <leafValues>
            -2.5937044620513916e-01 3.7783533334732056e-01</leafValues></_>
        <_>
          <internalNodes>
            0 -1 138 2.8888753149658442e-04</internalNodes>
          <leafValues>
            -1.6483916342258453e-01 4.8663696646690369e-01</leafValues></_>
        <_>
          <internalNodes>
            0 -1 129 -5.0056878535542637e-06</internalNodes>
          <leafValues>
            -3.6464259028434753e-01 2.5186115503311157e-01</leafValues></_>
        <_>
          <internalNodes>
            0 -1 16 -3.0455519445240498e-03</internalNodes>
          <leafValues>
            5.3813439607620239e-01 -1.4777919650077820e-01</leafValues></_>
        <_>
          <internalNodes>
            0 -1 132 3.2440241426229477e-02</internalNodes>
          <leafValues>
            -3.4415394067764282e-01 2.3855970799922943e-01</leafValues></_>
        <_>
          <internalNodes>
            0 -1 140 4.4038133637513965e-06</internalNodes>
          <leafValues>
            1.1501059681177139e-01 -6.4628559350967407e-01</leafValues></_>
        <_>
          <internalNodes>
            0 -1 134 -5.8026956394314766e-03</internalNodes>
          <leafValues>
            4.2554271221160889e-01 -1.7903502285480499e-01</leafValues></_>
        <_>
          <internalNodes>
            0 -1 130 1.2091525422874838e-04</internalNodes>
          <leafValues>
            -1.9249857962131500e-01 3.7546616792678833e-01</leafValues></_>
        <_>
          <internalNodes>
            0 -1 122 -2.5610364973545074e-03</internalNodes>
          <leafValues>
            -6.8117535114288330e-01 1.0766647011041641e-01</leafValues></_>
        <_>
          <internalNodes>
            0 -1 38 3.0253506265580654e-03</internalNodes>
          <leafValues>
            -1.9081516563892365e-01 4.2400100827217102e-01</leafValues></_>
        <_>
          <internalNodes>
            0 -1 120 3.3889286220073700e-02</internalNodes>
          <leafValues>
            -7.5779967010021210e-02 8.2850617170333862e-01</leafValues></_></weakClassifiers></_>
    <!-- stage 19 -->
    <_>
      <maxWeakCount>12</maxWeakCount>
      <stageThreshold>-9.3096584081649780e-01</stageThreshold>
      <weakClassifiers>
        <_>
          <internalNodes>
            0 -1 59 -2.0189514756202698e-01</internalNodes>
          <leafValues>
            8.7096774578094482e-01 -4.0871614217758179e-01</leafValues></_>
        <_>
          <internalNodes>
            0 -1 21 -6.0450863093137741e-03</internalNodes>
          <leafValues>
            3.1686329841613770e-01 -2.8250601887702942e-01</leafValues></_>
        <_>
          <internalNodes>
            0 -1 12 -6.5926369643420912e-06</internalNodes>
          <leafValues>
            -6.1595624685287476e-01 1.4359360933303833e-01</leafValues></_>
        <_>
          <internalNodes>
            0 -1 19 -1.0970063507556915e-01</internalNodes>
          <leafValues>
            -6.3449430465698242e-01 1.5522809326648712e-01</leafValues></_>
        <_>
          <internalNodes>
            0 -1 69 6.4196678977168631e-06</internalNodes>
          <leafValues>
            8.7632529437541962e-02 -6.6540050506591797e-01</leafValues></_>
        <_>
          <internalNodes>
            0 -1 62 -3.8629950722679496e-04</internalNodes>
          <leafValues>
            2.2671493887901306e-01 -3.5072645545005798e-01</leafValues></_>
        <_>
          <internalNodes>
            0 -1 152 3.2598727848380804e-03</internalNodes>
          <leafValues>
            -1.4244024455547333e-01 6.1504340171813965e-01</leafValues></_>
        <_>
          <internalNodes>
            0 -1 126 -2.9624056071043015e-02</internalNodes>
          <leafValues>
            -9.3614912033081055e-01 8.9799709618091583e-02</leafValues></_>
        <_>
          <internalNodes>
            0 -1 49 -5.1999909373989794e-06</internalNodes>
          <leafValues>
            -6.1736500263214111e-01 9.4783939421176910e-02</leafValues></_>
        <_>
          <internalNodes>
            0 -1 97 6.4484815811738372e-04</internalNodes>
          <leafValues>
            -1.4921154081821442e-01 5.8222073316574097e-01</leafValues></_>
        <_>
          <internalNodes>
            0 -1 94 -5.2282589422247838e-06</internalNodes>
          <leafValues>
            -6.0988360643386841e-01 1.2830141186714172e-01</leafValues></_>
        <_>
          <internalNodes>
            0 -1 121 -8.4045566618442535e-03</internalNodes>
          <leafValues>
            6.5869075059890747e-01 -1.1436036974191666e-01</leafValues></_></weakClassifiers></_></stages>
  <features>
    <_>
      <rects>
        <_>
          0 0 3 1 -1.</_>
        <_>
          1 0 1 1 2.</_></rects>
      <tilted>0</tilted></_>
    <_>
      <rects>
        <_>
          0 0 2 9 -1.</_>
        <_>
          1 0 1 9 2.</_></rects>
      <tilted>0</tilted></_>
    <_>
      <rects>
        <_>
          0 0 2 13 -1.</_>
        <_>
          1 0 1 13 2.</_></rects>
      <tilted>0</tilted></_>
    <_>
      <rects>
        <_>
          0 0 2 20 -1.</_>
        <_>
          1 0 1 20 2.</_></rects>
      <tilted>0</tilted></_>
    <_>
      <rects>
        <_>
          0 0 8 1 -1.</_>
        <_>
          4 0 4 1 2.</_></rects>
      <tilted>0</tilted></_>
    <_>
      <rects>
        <_>
          0 0 8 21 -1.</_>
        <_>
          4 0 4 21 2.</_></rects>
      <tilted>0</tilted></_>
    <_>
      <rects>
        <_>
          0 0 16 1 -1.</_>
        <_>
          8 0 8 1 2.</_></rects>
      <tilted>0</tilted></_>
    <_>
      <rects>
        <_>
          0 0 36 11 -1.</_>
        <_>
          18 0 18 11 2.</_></rects>
      <tilted>0</tilted></_>
    <_>
      <rects>
        <_>
          0 0 39 24 -1.</_>
        <_>
          0 12 39 12 2.</_></rects>
      <tilted>0</tilted></_>
    <_>
      <rects>
        <_>
          0 0 42 6 -1.</_>
        <_>
          0 3 42 3 2.</_></rects>
      <tilted>0</tilted></_>
    <_>
      <rects>
        <_>
          0 1 1 10 -1.</_>
        <_>
          0 6 1 5 2.</_></rects>
      <tilted>0</tilted></_>
    <_>
      <rects>
        <_>
          0 1 4 22 -1.</_>
        <_>
          2 1 2 22 2.</_></rects>
      <tilted>0</tilted></_>
    <_>
      <rects>
        <_>
          0 3 1 16 -1.</_>
        <_>
          0 11 1 8 2.</_></rects>
      <tilted>0</tilted></_>
    <_>
      <rects>
        <_>
          0 3 6 20 -1.</_>
        <_>
          3 3 3 20 2.</_></rects>
      <tilted>0</tilted></_>
    <_>
      <rects>
        <_>
          0 3 42 18 -1.</_>
        <_>
          0 3 21 9 2.</_>
        <_>
          21 12 21 9 2.</_></rects>
      <tilted>0</tilted></_>
    <_>
      <rects>
        <_>
          0 4 1 12 -1.</_>
        <_>
          0 10 1 6 2.</_></rects>
      <tilted>0</tilted></_>
    <_>
      <rects>
        <_>
          0 4 2 17 -1.</_>
        <_>
          1 4 1 17 2.</_></rects>
      <tilted>0</tilted></_>
    <_>
      <rects>
        <_>
          0 4 8 18 -1.</_>
        <_>
          4 4 4 18 2.</_></rects>
      <tilted>0</tilted></_>
    <_>
      <rects>
        <_>
          0 4 12 17 -1.</_>
        <_>
          6 4 6 17 2.</_></rects>
      <tilted>0</tilted></_>
    <_>
      <rects>
        <_>
          0 4 44 17 -1.</_>
        <_>
          22 4 22 17 2.</_></rects>
      <tilted>0</tilted></_>
    <_>
      <rects>
        <_>
          0 5 22 2 -1.</_>
        <_>
          0 5 11 1 2.</_>
        <_>
          11 6 11 1 2.</_></rects>
      <tilted>0</tilted></_>
    <_>
      <rects>
        <_>
          0 5 40 2 -1.</_>
        <_>
          20 5 20 2 2.</_></rects>
      <tilted>0</tilted></_>
    <_>
      <rects>
        <_>
          0 6 1 18 -1.</_>
        <_>
          0 15 1 9 2.</_></rects>
      <tilted>0</tilted></_>
    <_>
      <rects>
        <_>
          0 6 10 13 -1.</_>
        <_>
          5 6 5 13 2.</_></rects>
      <tilted>0</tilted></_>
    <_>
      <rects>
        <_>
          0 6 12 13 -1.</_>
        <_>
          6 6 6 13 2.</_></rects>
      <tilted>0</tilted></_>
    <_>
      <rects>
        <_>
          0 6 40 14 -1.</_>
        <_>
          0 6 20 7 2.</_>
        <_>
          20 13 20 7 2.</_></rects>
      <tilted>0</tilted></_>
    <_>
      <rects>
        <_>
          0 8 1 14 -1.</_>
        <_>
          0 15 1 7 2.</_></rects>
      <tilted>0</tilted></_>
    <_>
      <rects>
        <_>
          0 8 1 16 -1.</_>
        <_>
          0 16 1 8 2.</_></rects>
      <tilted>0</tilted></_>
    <_>
      <rects>
        <_>
          0 8 14 9 -1.</_>
        <_>
          7 8 7 9 2.</_></rects>
      <tilted>0</tilted></_>
    <_>
      <rects>
        <_>
          0 8 26 8 -1.</_>
        <_>
          13 8 13 8 2.</_></rects>
      <tilted>0</tilted></_>
    <_>
      <rects>
        <_>
          0 9 22 6 -1.</_>
        <_>
          11 9 11 6 2.</_></rects>
      <tilted>0</tilted></_>
    <_>
      <rects>
        <_>
          0 12 1 8 -1.</_>
        <_>
          0 16 1 4 2.</_></rects>
      <tilted>0</tilted></_>
    <_>
      <rects>
        <_>
          0 12 6 11 -1.</_>
        <_>
          3 12 3 11 2.</_></rects>
      <tilted>0</tilted></_>
    <_>
      <rects>
        <_>
          0 13 2 6 -1.</_>
        <_>
          1 13 1 6 2.</_></rects>
      <tilted>0</tilted></_>
    <_>
      <rects>
        <_>
          0 14 34 9 -1.</_>
        <_>
          17 14 17 9 2.</_></rects>
      <tilted>0</tilted></_>
    <_>
      <rects>
        <_>
          0 15 1 8 -1.</_>
        <_>
          0 19 1 4 2.</_></rects>
      <tilted>0</tilted></_>
    <_>
      <rects>
        <_>
          0 16 43 8 -1.</_>
        <_>
          0 20 43 4 2.</_></rects>
      <tilted>0</tilted></_>
    <_>
      <rects>
        <_>
          0 18 43 6 -1.</_>
        <_>
          0 21 43 3 2.</_></rects>
      <tilted>0</tilted></_>
    <_>
      <rects>
        <_>
          0 21 43 2 -1.</_>
        <_>
          0 22 43 1 2.</_></rects>
      <tilted>0</tilted></_>
    <_>
      <rects>
        <_>
          0 22 38 2 -1.</_>
        <_>
          0 23 38 1 2.</_></rects>
      <tilted>0</tilted></_>
    <_>
      <rects>
        <_>
          1 0 6 1 -1.</_>
        <_>
          4 0 3 1 2.</_></rects>
      <tilted>0</tilted></_>
    <_>
      <rects>
        <_>
          1 0 24 1 -1.</_>
        <_>
          13 0 12 1 2.</_></rects>
      <tilted>0</tilted></_>
    <_>
      <rects>
        <_>
          1 0 40 8 -1.</_>
        <_>
          1 4 40 4 2.</_></rects>
      <tilted>0</tilted></_>
    <_>
      <rects>
        <_>
          1 0 41 4 -1.</_>
        <_>
          1 2 41 2 2.</_></rects>
      <tilted>0</tilted></_>
    <_>
      <rects>
        <_>
          1 0 42 6 -1.</_>
        <_>
          1 3 42 3 2.</_></rects>
      <tilted>0</tilted></_>
    <_>
      <rects>
        <_>
          1 1 20 6 -1.</_>
        <_>
          1 1 10 3 2.</_>
        <_>
          11 4 10 3 2.</_></rects>
      <tilted>0</tilted></_>
    <_>
      <rects>
        <_>
          1 23 12 1 -1.</_>
        <_>
          7 23 6 1 2.</_></rects>
      <tilted>0</tilted></_>
    <_>
      <rects>
        <_>
          2 0 6 4 -1.</_>
        <_>
          5 0 3 4 2.</_></rects>
      <tilted>0</tilted></_>
    <_>
      <rects>
        <_>
          2 2 26 18 -1.</_>
        <_>
          2 2 13 9 2.</_>
        <_>
          15 11 13 9 2.</_></rects>
      <tilted>0</tilted></_>
    <_>
      <rects>
        <_>
          2 3 6 1 -1.</_>
        <_>
          5 3 3 1 2.</_></rects>
      <tilted>0</tilted></_>
    <_>
      <rects>
        <_>
          2 16 36 8 -1.</_>
        <_>
          2 20 36 4 2.</_></rects>
      <tilted>0</tilted></_>
    <_>
      <rects>
        <_>
          2 20 42 4 -1.</_>
        <_>
          2 22 42 2 2.</_></rects>
      <tilted>0</tilted></_>
    <_>
      <rects>
        <_>
          3 0 36 10 -1.</_>
        <_>
          3 5 36 5 2.</_></rects>
      <tilted>0</tilted></_>
    <_>
      <rects>
        <_>
          3 8 24 2 -1.</_>
        <_>
          15 8 12 2 2.</_></rects>
      <tilted>0</tilted></_>
    <_>
      <rects>
        <_>
          3 11 24 8 -1.</_>
        <_>
          3 11 12 4 2.</_>
        <_>
          15 15 12 4 2.</_></rects>
      <tilted>0</tilted></_>
    <_>
      <rects>
        <_>
          3 16 38 4 -1.</_>
        <_>
          3 16 19 2 2.</_>
        <_>
          22 18 19 2 2.</_></rects>
      <tilted>0</tilted></_>
    <_>
      <rects>
        <_>
          4 1 22 8 -1.</_>
        <_>
          4 1 11 4 2.</_>
        <_>
          15 5 11 4 2.</_></rects>
      <tilted>0</tilted></_>
    <_>
      <rects>
        <_>
          4 3 10 12 -1.</_>
        <_>
          4 3 5 6 2.</_>
        <_>
          9 9 5 6 2.</_></rects>
      <tilted>0</tilted></_>
    <_>
      <rects>
        <_>
          4 3 35 4 -1.</_>
        <_>
          4 5 35 2 2.</_></rects>
      <tilted>0</tilted></_>
    <_>
      <rects>
        <_>
          4 5 34 14 -1.</_>
        <_>
          4 5 17 7 2.</_>
        <_>
          21 12 17 7 2.</_></rects>
      <tilted>0</tilted></_>
    <_>
      <rects>
        <_>
          4 5 34 16 -1.</_>
        <_>
          4 5 17 8 2.</_>
        <_>
          21 13 17 8 2.</_></rects>
      <tilted>0</tilted></_>
    <_>
      <rects>
        <_>
          4 5 38 14 -1.</_>
        <_>
          4 5 19 7 2.</_>
        <_>
          23 12 19 7 2.</_></rects>
      <tilted>0</tilted></_>
    <_>
      <rects>
        <_>
          4 10 22 1 -1.</_>
        <_>
          15 10 11 1 2.</_></rects>
      <tilted>0</tilted></_>
    <_>
      <rects>
        <_>
          4 13 40 6 -1.</_>
        <_>
          24 13 20 6 2.</_></rects>
      <tilted>0</tilted></_>
    <_>
      <rects>
        <_>
          4 14 26 6 -1.</_>
        <_>
          4 14 13 3 2.</_>
        <_>
          17 17 13 3 2.</_></rects>
      <tilted>0</tilted></_>
    <_>
      <rects>
        <_>
          4 18 20 2 -1.</_>
        <_>
          4 19 20 1 2.</_></rects>
      <tilted>0</tilted></_>
    <_>
      <rects>
        <_>
          5 10 2 8 -1.</_>
        <_>
          5 10 1 4 2.</_>
        <_>
          6 14 1 4 2.</_></rects>
      <tilted>0</tilted></_>
    <_>
      <rects>
        <_>
          5 15 38 8 -1.</_>
        <_>
          5 15 19 4 2.</_>
        <_>
          24 19 19 4 2.</_></rects>
      <tilted>0</tilted></_>
    <_>
      <rects>
        <_>
          5 17 29 2 -1.</_>
        <_>
          5 18 29 1 2.</_></rects>
      <tilted>0</tilted></_>
    <_>
      <rects>
        <_>
          5 23 30 1 -1.</_>
        <_>
          20 23 15 1 2.</_></rects>
      <tilted>0</tilted></_>
    <_>
      <rects>
        <_>
          6 3 36 20 -1.</_>
        <_>
          6 3 18 10 2.</_>
        <_>
          24 13 18 10 2.</_></rects>
      <tilted>0</tilted></_>
    <_>
      <rects>
        <_>
          6 6 38 2 -1.</_>
        <_>
          6 6 19 1 2.</_>
        <_>
          25 7 19 1 2.</_></rects>
      <tilted>0</tilted></_>
    <_>
      <rects>
        <_>
          6 7 36 2 -1.</_>
        <_>
          6 8 36 1 2.</_></rects>
      <tilted>0</tilted></_>
    <_>
      <rects>
        <_>
          7 16 26 2 -1.</_>
        <_>
          7 17 26 1 2.</_></rects>
      <tilted>0</tilted></_>
    <_>
      <rects>
        <_>
          8 0 28 14 -1.</_>
        <_>
          8 7 28 7 2.</_></rects>
      <tilted>0</tilted></_>
    <_>
      <rects>
        <_>
          8 2 36 6 -1.</_>
        <_>
          26 2 18 6 2.</_></rects>
      <tilted>0</tilted></_>
    <_>
      <rects>
        <_>
          8 6 12 1 -1.</_>
        <_>
          12 6 4 1 2.</_></rects>
      <tilted>0</tilted></_>
    <_>
      <rects>
        <_>
          8 14 18 2 -1.</_>
        <_>
          8 14 9 1 2.</_>
        <_>
          17 15 9 1 2.</_></rects>
      <tilted>0</tilted></_>
    <_>
      <rects>
        <_>
          9 4 34 14 -1.</_>
        <_>
          9 4 17 7 2.</_>
        <_>
          26 11 17 7 2.</_></rects>
      <tilted>0</tilted></_>
    <_>
      <rects>
        <_>
          9 15 26 2 -1.</_>
        <_>
          9 16 26 1 2.</_></rects>
      <tilted>0</tilted></_>
    <_>
      <rects>
        <_>
          9 23 12 1 -1.</_>
        <_>
          15 23 6 1 2.</_></rects>
      <tilted>0</tilted></_>
    <_>
      <rects>
        <_>
          10 2 22 10 -1.</_>
        <_>
          10 2 11 5 2.</_>
        <_>
          21 7 11 5 2.</_></rects>
      <tilted>0</tilted></_>
    <_>
      <rects>
        <_>
          10 6 30 2 -1.</_>
        <_>
          10 7 30 1 2.</_></rects>
      <tilted>0</tilted></_>
    <_>
      <rects>
        <_>
          10 10 22 14 -1.</_>
        <_>
          10 17 22 7 2.</_></rects>
      <tilted>0</tilted></_>
    <_>
      <rects>
        <_>
          10 12 18 2 -1.</_>
        <_>
          10 12 9 1 2.</_>
        <_>
          19 13 9 1 2.</_></rects>
      <tilted>0</tilted></_>
    <_>
      <rects>
        <_>
          10 20 32 2 -1.</_>
        <_>
          10 20 16 1 2.</_>
        <_>
          26 21 16 1 2.</_></rects>
      <tilted>0</tilted></_>
    <_>
      <rects>
        <_>
          11 0 21 16 -1.</_>
        <_>
          11 8 21 8 2.</_></rects>
      <tilted>0</tilted></_>
    <_>
      <rects>
        <_>
          11 0 27 24 -1.</_>
        <_>
          11 8 27 8 2.</_></rects>
      <tilted>0</tilted></_>
    <_>
      <rects>
        <_>
          12 5 26 2 -1.</_>
        <_>
          12 5 13 1 2.</_>
        <_>
          25 6 13 1 2.</_></rects>
      <tilted>0</tilted></_>
    <_>
      <rects>
        <_>
          12 8 18 2 -1.</_>
        <_>
          12 8 9 1 2.</_>
        <_>
          21 9 9 1 2.</_></rects>
      <tilted>0</tilted></_>
    <_>
      <rects>
        <_>
          12 22 4 2 -1.</_>
        <_>
          14 22 2 2 2.</_></rects>
      <tilted>0</tilted></_>
    <_>
      <rects>
        <_>
          13 1 30 20 -1.</_>
        <_>
          13 1 15 10 2.</_>
        <_>
          28 11 15 10 2.</_></rects>
      <tilted>0</tilted></_>
    <_>
      <rects>
        <_>
          13 10 6 2 -1.</_>
        <_>
          13 10 3 1 2.</_>
        <_>
          16 11 3 1 2.</_></rects>
      <tilted>0</tilted></_>
    <_>
      <rects>
        <_>
          13 17 1 2 -1.</_>
        <_>
          13 18 1 1 2.</_></rects>
      <tilted>0</tilted></_>
    <_>
      <rects>
        <_>
          13 22 24 1 -1.</_>
        <_>
          25 22 12 1 2.</_></rects>
      <tilted>0</tilted></_>
    <_>
      <rects>
        <_>
          14 14 24 2 -1.</_>
        <_>
          14 14 12 1 2.</_>
        <_>
          26 15 12 1 2.</_></rects>
      <tilted>0</tilted></_>
    <_>
      <rects>
        <_>
          15 0 7 2 -1.</_>
        <_>
          15 1 7 1 2.</_></rects>
      <tilted>0</tilted></_>
    <_>
      <rects>
        <_>
          15 4 1 6 -1.</_>
        <_>
          15 7 1 3 2.</_></rects>
      <tilted>0</tilted></_>
    <_>
      <rects>
        <_>
          15 4 2 9 -1.</_>
        <_>
          15 7 2 3 2.</_></rects>
      <tilted>0</tilted></_>
    <_>
      <rects>
        <_>
          15 4 29 8 -1.</_>
        <_>
          15 8 29 4 2.</_></rects>
      <tilted>0</tilted></_>
    <_>
      <rects>
        <_>
          15 19 16 4 -1.</_>
        <_>
          15 21 16 2 2.</_></rects>
      <tilted>0</tilted></_>
    <_>
      <rects>
        <_>
          16 3 28 2 -1.</_>
        <_>
          16 3 14 1 2.</_>
        <_>
          30 4 14 1 2.</_></rects>
      <tilted>0</tilted></_>
    <_>
      <rects>
        <_>
          16 7 1 2 -1.</_>
        <_>
          16 8 1 1 2.</_></rects>
      <tilted>0</tilted></_>
    <_>
      <rects>
        <_>
          16 7 1 3 -1.</_>
        <_>
          16 8 1 1 2.</_></rects>
      <tilted>0</tilted></_>
    <_>
      <rects>
        <_>
          16 12 26 2 -1.</_>
        <_>
          16 13 26 1 2.</_></rects>
      <tilted>0</tilted></_>
    <_>
      <rects>
        <_>
          17 5 2 10 -1.</_>
        <_>
          17 5 1 5 2.</_>
        <_>
          18 10 1 5 2.</_></rects>
      <tilted>0</tilted></_>
    <_>
      <rects>
        <_>
          17 20 3 1 -1.</_>
        <_>
          18 20 1 1 2.</_></rects>
      <tilted>0</tilted></_>
    <_>
      <rects>
        <_>
          18 0 6 20 -1.</_>
        <_>
          18 10 6 10 2.</_></rects>
      <tilted>0</tilted></_>
    <_>
      <rects>
        <_>
          18 0 22 1 -1.</_>
        <_>
          29 0 11 1 2.</_></rects>
      <tilted>0</tilted></_>
    <_>
      <rects>
        <_>
          18 2 22 6 -1.</_>
        <_>
          18 2 11 3 2.</_>
        <_>
          29 5 11 3 2.</_></rects>
      <tilted>0</tilted></_>
    <_>
      <rects>
        <_>
          18 6 2 4 -1.</_>
        <_>
          18 6 1 2 2.</_>
        <_>
          19 8 1 2 2.</_></rects>
      <tilted>0</tilted></_>
    <_>
      <rects>
        <_>
          18 9 22 2 -1.</_>
        <_>
          18 10 22 1 2.</_></rects>
      <tilted>0</tilted></_>
    <_>
      <rects>
        <_>
          18 18 3 4 -1.</_>
        <_>
          18 20 3 2 2.</_></rects>
      <tilted>0</tilted></_>
    <_>
      <rects>
        <_>
          19 8 1 4 -1.</_>
        <_>
          19 10 1 2 2.</_></rects>
      <tilted>0</tilted></_>
    <_>
      <rects>
        <_>
          19 11 2 2 -1.</_>
        <_>
          19 11 1 1 2.</_>
        <_>
          20 12 1 1 2.</_></rects>
      <tilted>0</tilted></_>
    <_>
      <rects>
        <_>
          19 13 1 4 -1.</_>
        <_>
          19 15 1 2 2.</_></rects>
      <tilted>0</tilted></_>
    <_>
      <rects>
        <_>
          19 18 1 3 -1.</_>
        <_>
          19 19 1 1 2.</_></rects>
      <tilted>0</tilted></_>
    <_>
      <rects>
        <_>
          20 0 1 8 -1.</_>
        <_>
          20 4 1 4 2.</_></rects>
      <tilted>0</tilted></_>
    <_>
      <rects>
        <_>
          20 3 18 2 -1.</_>
        <_>
          20 3 9 1 2.</_>
        <_>
          29 4 9 1 2.</_></rects>
      <tilted>0</tilted></_>
    <_>
      <rects>
        <_>
          20 8 12 2 -1.</_>
        <_>
          20 9 12 1 2.</_></rects>
      <tilted>0</tilted></_>
    <_>
      <rects>
        <_>
          20 13 20 10 -1.</_>
        <_>
          20 13 10 5 2.</_>
        <_>
          30 18 10 5 2.</_></rects>
      <tilted>0</tilted></_>
    <_>
      <rects>
        <_>
          20 16 22 2 -1.</_>
        <_>
          20 16 11 1 2.</_>
        <_>
          31 17 11 1 2.</_></rects>
      <tilted>0</tilted></_>
    <_>
      <rects>
        <_>
          21 2 4 5 -1.</_>
        <_>
          23 2 2 5 2.</_></rects>
      <tilted>0</tilted></_>
    <_>
      <rects>
        <_>
          22 10 13 3 -1.</_>
        <_>
          22 11 13 1 2.</_></rects>
      <tilted>0</tilted></_>
    <_>
      <rects>
        <_>
          22 12 22 1 -1.</_>
        <_>
          33 12 11 1 2.</_></rects>
      <tilted>0</tilted></_>
    <_>
      <rects>
        <_>
          22 19 18 2 -1.</_>
        <_>
          22 19 9 1 2.</_>
        <_>
          31 20 9 1 2.</_></rects>
      <tilted>0</tilted></_>
    <_>
      <rects>
        <_>
          23 5 6 17 -1.</_>
        <_>
          26 5 3 17 2.</_></rects>
      <tilted>0</tilted></_>
    <_>
      <rects>
        <_>
          24 10 14 2 -1.</_>
        <_>
          24 11 14 1 2.</_></rects>
      <tilted>0</tilted></_>
    <_>
      <rects>
        <_>
          25 0 18 10 -1.</_>
        <_>
          25 0 9 5 2.</_>
        <_>
          34 5 9 5 2.</_></rects>
      <tilted>0</tilted></_>
    <_>
      <rects>
        <_>
          25 3 2 4 -1.</_>
        <_>
          25 5 2 2 2.</_></rects>
      <tilted>0</tilted></_>
    <_>
      <rects>
        <_>
          25 7 1 8 -1.</_>
        <_>
          25 11 1 4 2.</_></rects>
      <tilted>0</tilted></_>
    <_>
      <rects>
        <_>
          25 10 1 2 -1.</_>
        <_>
          25 11 1 1 2.</_></rects>
      <tilted>0</tilted></_>
    <_>
      <rects>
        <_>
          26 6 18 11 -1.</_>
        <_>
          35 6 9 11 2.</_></rects>
      <tilted>0</tilted></_>
    <_>
      <rects>
        <_>
          26 8 1 4 -1.</_>
        <_>
          26 10 1 2 2.</_></rects>
      <tilted>0</tilted></_>
    <_>
      <rects>
        <_>
          28 3 12 8 -1.</_>
        <_>
          28 3 6 4 2.</_>
        <_>
          34 7 6 4 2.</_></rects>
      <tilted>0</tilted></_>
    <_>
      <rects>
        <_>
          28 9 16 8 -1.</_>
        <_>
          36 9 8 8 2.</_></rects>
      <tilted>0</tilted></_>
    <_>
      <rects>
        <_>
          29 23 12 1 -1.</_>
        <_>
          35 23 6 1 2.</_></rects>
      <tilted>0</tilted></_>
    <_>
      <rects>
        <_>
          30 11 14 6 -1.</_>
        <_>
          37 11 7 6 2.</_></rects>
      <tilted>0</tilted></_>
    <_>
      <rects>
        <_>
          31 6 2 2 -1.</_>
        <_>
          31 6 1 1 2.</_>
        <_>
          32 7 1 1 2.</_></rects>
      <tilted>0</tilted></_>
    <_>
      <rects>
        <_>
          31 9 1 4 -1.</_>
        <_>
          31 11 1 2 2.</_></rects>
      <tilted>0</tilted></_>
    <_>
      <rects>
        <_>
          32 2 6 1 -1.</_>
        <_>
          35 2 3 1 2.</_></rects>
      <tilted>0</tilted></_>
    <_>
      <rects>
        <_>
          32 8 12 10 -1.</_>
        <_>
          38 8 6 10 2.</_></rects>
      <tilted>0</tilted></_>
    <_>
      <rects>
        <_>
          32 9 12 10 -1.</_>
        <_>
          38 9 6 10 2.</_></rects>
      <tilted>0</tilted></_>
    <_>
      <rects>
        <_>
          32 10 1 12 -1.</_>
        <_>
          32 16 1 6 2.</_></rects>
      <tilted>0</tilted></_>
    <_>
      <rects>
        <_>
          34 3 10 15 -1.</_>
        <_>
          39 3 5 15 2.</_></rects>
      <tilted>0</tilted></_>
    <_>
      <rects>
        <_>
          36 0 8 14 -1.</_>
        <_>
          40 0 4 14 2.</_></rects>
      <tilted>0</tilted></_>
    <_>
      <rects>
        <_>
          36 0 8 21 -1.</_>
        <_>
          40 0 4 21 2.</_></rects>
      <tilted>0</tilted></_>
    <_>
      <rects>
        <_>
          36 3 8 18 -1.</_>
        <_>
          40 3 4 18 2.</_></rects>
      <tilted>0</tilted></_>
    <_>
      <rects>
        <_>
          37 8 6 12 -1.</_>
        <_>
          40 8 3 12 2.</_></rects>
      <tilted>0</tilted></_>
    <_>
      <rects>
        <_>
          38 0 6 24 -1.</_>
        <_>
          38 8 6 8 2.</_></rects>
      <tilted>0</tilted></_>
    <_>
      <rects>
        <_>
          38 1 6 20 -1.</_>
        <_>
          41 1 3 20 2.</_></rects>
      <tilted>0</tilted></_>
    <_>
      <rects>
        <_>
          40 1 4 21 -1.</_>
        <_>
          42 1 2 21 2.</_></rects>
      <tilted>0</tilted></_>
    <_>
      <rects>
        <_>
          42 6 2 10 -1.</_>
        <_>
          43 6 1 10 2.</_></rects>
      <tilted>0</tilted></_>
    <_>
      <rects>
        <_>
          42 12 2 5 -1.</_>
        <_>
          43 12 1 5 2.</_></rects>
      <tilted>0</tilted></_>
    <_>
      <rects>
        <_>
          42 18 2 6 -1.</_>
        <_>
          43 18 1 6 2.</_></rects>
      <tilted>0</tilted></_>
    <_>
      <rects>
        <_>
          43 2 1 22 -1.</_>
        <_>
          43 13 1 11 2.</_></rects>
      <tilted>0</tilted></_>
    <_>
      <rects>
        <_>
          43 5 1 8 -1.</_>
        <_>
          43 9 1 4 2.</_></rects>
      <tilted>0</tilted></_>
    <_>
      <rects>
        <_>
          43 8 1 16 -1.</_>
        <_>
          43 16 1 8 2.</_></rects>
      <tilted>0</tilted></_>
    <_>
      <rects>
        <_>
          43 10 1 4 -1.</_>
        <_>
          43 12 1 2 2.</_></rects>
      <tilted>0</tilted></_>
    <_>
      <rects>
        <_>
          43 10 1 10 -1.</_>
        <_>
          43 15 1 5 2.</_></rects>
      <tilted>0</tilted></_>
    <_>
      <rects>
        <_>
          43 14 1 4 -1.</_>
        <_>
          43 16 1 2 2.</_></rects>
      <tilted>0</tilted></_>
    <_>
      <rects>
        <_>
          43 15 1 8 -1.</_>
        <_>
          43 19 1 4 2.</_></rects>
      <tilted>0</tilted></_>
    <_>
      <rects>
        <_>
          43 17 1 6 -1.</_>
        <_>
          43 20 1 3 2.</_></rects>
      <tilted>0</tilted></_></features></cascade>
</opencv_storage>
